243003 100
</s> 0.004003 0.004419 -0.003830 -0.003278 0.001367 0.003021 0.000941 0.000211 -0.003604 0.002218 -0.004356 0.001250 -0.000751 -0.000957 -0.003316 -0.001882 0.002579 0.003025 0.002969 0.001597 0.001545 -0.003803 -0.004096 0.004970 0.003801 0.003090 -0.000604 0.004016 -0.000495 0.000735 -0.000149 -0.002983 0.001312 -0.001337 -0.003825 0.004754 0.004379 -0.001095 -0.000226 0.000509 -0.003638 -0.004007 0.004555 0.000063 -0.002582 -0.003042 -0.003076 0.001697 0.000201 0.001331 -0.004214 -0.003808 -0.000130 0.001144 0.002550 -0.003170 0.004080 0.000927 0.001120 -0.000608 0.002986 -0.002288 -0.002097 0.002158 -0.000753 0.001031 0.001805 -0.004089 -0.001983 0.002914 0.004232 0.003932 -0.003047 -0.002108 -0.000909 0.002001 -0.003788 0.002998 0.002788 -0.001599 -0.001552 -0.002238 0.004229 0.003912 -0.001180 0.004215 0.004820 0.001815 0.004983 -0.003111 -0.001532 -0.002107 -0.002907 0.002815 0.001579 0.000425 -0.002194 0.001524 0.003059 0.000194 
the 0.314845 -0.594966 0.364453 -0.303990 -0.163298 -0.208138 -0.063397 -0.274273 0.008039 0.313427 0.077980 0.230821 -0.303666 0.069646 0.034396 0.713454 0.144248 -0.182218 0.363876 0.619664 -0.351316 0.002414 0.434149 -0.429740 0.368150 -0.709280 -0.076584 0.168682 -0.111134 0.291124 0.056759 0.236357 -0.216234 -0.151878 -0.429654 0.020701 0.152160 -0.012689 -0.365258 -0.284180 -0.031743 0.322464 -0.294811 0.017445 -0.004059 0.215779 -0.119879 -0.232236 -0.321151 0.301774 -0.126148 -0.517174 0.345968 0.640385 -0.217424 0.308738 0.219053 -0.115701 -0.205319 -0.211564 0.195052 -0.465845 0.079989 -0.314120 -0.489292 0.393189 0.506710 0.444550 0.090913 -0.041937 0.019073 -0.211669 -0.068794 -0.324646 0.286798 -0.096603 -0.458527 -0.017360 -0.027033 0.193178 0.239730 0.050892 0.067579 -0.175215 0.044952 0.132419 -0.129821 0.273940 0.560339 0.021715 0.215951 0.731709 0.132121 0.113550 0.430923 0.344183 -0.263545 0.435532 -0.201218 -0.027319 
, 0.061619 -0.565545 0.125936 -0.284422 -0.169127 0.460509 0.006625 -0.329331 0.336665 0.193879 -0.132434 0.249105 -0.175773 -0.082793 -0.508019 0.721060 0.760420 0.176019 0.246262 0.204314 -0.036362 0.074625 0.350433 -0.545271 0.286622 0.015969 0.181921 0.125430 0.076984 0.101759 -0.054494 -0.030594 -0.198813 0.228708 -0.216355 0.340003 0.244340 -0.195765 -0.119334 -0.120226 -0.318529 0.204634 0.185596 0.069793 0.452572 -0.086685 0.141807 -0.011995 -0.132059 -0.212667 -0.142585 -0.398395 -0.025111 0.381179 -0.108959 0.118045 0.097696 0.146426 -0.037016 -0.224785 -0.025545 -0.028420 0.267363 -0.368773 0.066806 0.377338 -0.069999 0.191271 0.208339 0.765346 -0.036333 0.458936 -0.107518 -0.250389 -0.237289 0.171875 0.037814 0.242127 0.013300 -0.237103 0.670932 0.376154 -0.036636 -0.018235 0.258066 -0.027170 -0.148790 0.426763 0.525802 0.158871 -0.257020 0.297436 0.124205 0.011005 0.495096 -0.158856 0.035228 0.189957 -0.267969 0.279380 
. -0.116517 -0.631137 0.172816 -0.262048 -0.040504 0.169117 -0.205499 -0.148350 0.189173 -0.031506 -0.269349 0.609523 0.305698 0.023472 -0.190445 0.771157 0.612304 -0.063000 0.169066 0.124187 -0.252965 0.417390 0.571047 -0.499795 0.302955 -0.171781 -0.112887 -0.118344 -0.068801 0.051599 0.114658 0.144728 -0.341774 0.481746 -0.240515 0.133912 0.308567 -0.004850 0.110450 -0.254397 -0.202240 0.070778 0.094780 -0.098785 0.370708 0.007306 -0.049338 0.102309 0.098400 -0.195322 0.121543 -0.620514 -0.073040 0.195811 -0.309233 -0.020104 0.643815 0.071323 -0.093095 -0.374297 0.072836 -0.204757 0.191280 -0.432853 0.101545 0.427208 0.164303 0.246313 0.311429 0.849791 0.004568 0.328126 -0.185645 -0.371651 -0.270725 -0.013400 0.010909 0.024112 -0.176938 -0.180654 0.428156 0.150460 -0.219369 -0.015102 0.349785 0.259967 -0.081237 0.262176 0.586780 0.224804 -0.204084 0.548801 0.081115 0.046538 0.352024 0.230098 -0.050318 0.615924 -0.423620 0.186570 
to 0.197442 -0.637852 0.723793 0.228265 -0.209489 -0.129083 -0.670591 0.056749 -0.057080 0.130906 0.301211 0.642520 -0.070317 -0.087481 -0.137675 0.726758 0.106588 0.474221 0.246820 0.491766 -0.607310 0.497473 0.881727 -0.534083 0.245447 -0.569059 0.242032 0.243613 0.119737 -0.130820 0.102177 -0.087899 -0.169788 0.058290 -0.371190 -0.220458 -0.135389 -0.418148 0.004503 -0.117781 0.051623 0.200558 0.079214 0.189447 0.345060 0.115508 0.278469 -0.390066 -0.054803 0.276937 0.225973 0.174490 0.168700 0.613848 -0.076020 0.297264 0.610255 -0.114901 0.122851 -0.519626 -0.184751 -0.170900 0.237678 0.170298 -0.262081 0.550583 0.314583 0.309496 0.455486 0.457544 -0.222367 -0.053423 0.203402 -0.134627 -0.314593 0.259869 -0.159606 -0.078012 -0.077576 0.530603 0.207414 0.353165 -0.352815 0.063989 0.172238 0.499691 0.351273 0.515554 0.241985 0.111153 0.005629 0.443102 -0.193660 0.164820 0.408761 0.341338 -0.077911 0.112802 -0.377645 0.043298 
of 0.822699 -0.084458 0.351674 -0.595382 -0.094335 0.468603 -0.342321 -0.167341 -0.095108 0.358324 0.106469 0.054707 -0.374442 -0.018412 -0.467275 0.912275 0.329342 0.172564 -0.090153 0.366063 -0.317755 -0.214687 0.428383 -0.211940 0.077816 -0.345565 -0.095127 0.285491 -0.314865 0.237964 -0.031317 0.130597 -0.199260 -0.021495 -0.299198 0.363026 -0.061446 0.546852 0.140084 -0.277546 -0.139779 0.092069 0.281249 0.535820 0.502602 -0.347799 0.263516 -0.302707 -0.572312 0.010951 0.147274 -0.565693 0.541944 0.677353 0.332026 0.444431 0.528438 -0.012667 -0.455239 -0.092439 -0.098317 -0.929643 0.200372 -0.229893 -0.329217 0.246190 0.498305 0.285195 0.034301 0.017304 -0.295977 0.020165 -0.247008 -0.546241 0.137662 -0.169849 -0.558619 0.172896 -0.197077 0.082759 0.170382 0.589134 -0.203385 -0.275833 -0.114326 0.317886 -0.273291 0.532866 0.594674 0.065636 0.239919 0.498163 -0.506829 -0.160683 0.274325 0.576139 -0.071314 0.532383 -0.184705 0.031909 
in 0.270030 -0.590094 0.236622 -0.266904 -0.478570 0.165992 -0.168065 -0.198257 -0.090045 0.165765 -0.163420 0.543254 -0.405209 0.048136 0.044066 0.602239 0.463040 0.344382 0.049385 0.597590 -0.170969 0.201900 0.158900 -0.253573 0.618351 -0.267107 -0.010892 0.211295 -0.287131 0.224411 0.183081 0.151509 -0.635352 -0.026982 -0.181967 -0.027524 0.211219 -0.010205 0.103330 -0.235990 -0.067206 0.296948 -0.547320 0.461950 -0.145082 -0.325430 -0.171588 -0.204977 -0.016482 0.095791 0.147713 -0.211274 0.352917 0.575098 0.172565 0.464926 0.534388 -0.387016 -0.178260 -0.425040 -0.327271 -0.479473 -0.136279 -0.372879 -0.422219 0.439108 0.425234 0.151423 0.399286 0.701726 -0.396379 0.121262 0.061945 -0.193391 0.237545 0.140563 -0.068307 0.361672 0.148818 -0.032634 -0.099206 0.255565 -0.179799 0.096437 0.067286 0.172372 0.079567 0.112269 0.804578 0.257359 0.130183 0.682744 0.061542 -0.072163 0.464938 -0.105793 -0.526269 0.749039 -0.075960 -0.034601 
" 0.028575 -0.296127 0.339668 -0.089125 0.026829 0.088406 -0.186125 -0.435523 0.587653 -0.022578 -0.313523 0.373738 0.066674 0.237574 -0.335378 0.756297 0.714792 0.277202 0.577172 0.194495 -0.274715 0.304427 -0.068499 -0.453141 0.516404 -0.352806 -0.494414 0.151882 0.555560 0.481371 0.030771 0.504485 -0.299580 0.094888 -0.238070 0.039943 0.316427 0.074882 0.014610 -0.006180 -0.336177 0.412635 0.144923 -0.144358 0.377199 0.181192 0.038284 0.172755 0.086300 -0.153045 -0.111700 -0.469687 0.291809 0.047181 -0.184703 -0.188811 0.302752 0.080674 -0.352981 -0.021641 0.174459 -0.025047 0.178379 -0.098903 -0.322968 0.262168 0.024404 0.188568 0.340431 0.703774 -0.142533 -0.108977 -0.118261 -0.685037 -0.179481 -0.033825 -0.210655 -0.062774 0.071595 0.055569 0.545248 0.232947 -0.131283 -0.166819 0.332303 0.523019 0.199877 0.583822 0.458352 0.068974 -0.328188 0.582570 0.245179 -0.111149 0.306251 -0.242629 -0.165446 0.103968 -0.345501 0.030228 
a 0.011511 -0.232540 0.562807 -0.082110 -0.009842 -0.148571 0.074057 -0.611091 0.185468 0.572255 0.112890 0.022776 -0.364913 -0.046896 0.219115 0.594911 0.353354 -0.028484 0.635191 0.782276 -0.578919 -0.235713 0.408598 -0.258895 0.436848 -0.591067 -0.247372 -0.311735 0.036831 0.424034 -0.195738 0.356345 -0.521203 -0.230719 -0.511835 -0.346552 0.082060 -0.167051 -0.674936 -0.031044 -0.217424 0.032647 -0.319937 -0.430559 0.200622 0.092926 0.037827 -0.666964 0.009919 0.155216 0.089366 -0.248312 0.371653 0.263414 -0.052644 0.362517 0.152027 -0.040275 -0.160895 -0.333107 0.309348 -0.364230 0.222913 -0.260666 -0.240571 0.662834 0.595740 0.086899 0.319936 0.488346 -0.149231 -0.481083 0.300687 -0.677203 -0.114658 0.068302 -0.376407 0.249295 0.405189 0.311404 0.016463 -0.030252 0.041268 0.044339 -0.004299 0.008483 0.111671 0.262484 0.497072 0.214584 0.402537 0.570612 0.087245 0.026053 -0.044270 0.345816 0.194831 0.555670 -0.034593 0.061255 
and 0.093089 -0.416940 0.242365 -0.099262 -0.349582 0.353881 -0.428116 -0.354311 0.358166 -0.014527 0.105275 0.728181 -0.123956 -0.223864 -0.473153 0.785380 0.609310 0.302419 0.068711 0.218531 0.014686 -0.002023 0.614889 -0.322795 0.198478 -0.165817 0.233734 -0.023337 -0.037714 0.119885 -0.259301 0.066333 -0.261976 0.101581 -0.036353 0.144885 0.423665 -0.102028 -0.197342 -0.031917 -0.118802 0.176153 0.026729 0.383900 0.215157 -0.036532 0.175760 -0.090541 -0.053617 -0.113605 0.090844 -0.522979 0.026331 0.074780 -0.251835 0.309381 0.151414 -0.118608 -0.045896 -0.150373 -0.138382 -0.134188 0.077434 -0.387055 -0.220267 0.404835 0.083887 0.446463 -0.074888 0.833146 -0.076520 0.213300 -0.159567 -0.283296 -0.151653 0.269059 0.003935 0.272474 -0.010425 -0.108415 0.609780 0.365540 -0.114673 0.047454 0.248113 0.289652 -0.060059 0.685182 0.521615 -0.007380 -0.239664 0.307806 0.240007 -0.046136 0.472502 0.161124 -0.129848 0.236426 -0.533619 -0.027941 
said -0.109454 -0.918616 -0.056741 -0.060785 0.007893 0.296487 -0.281338 -0.231963 0.252306 0.118923 -0.668412 0.073059 0.091325 0.008818 -0.299199 0.809704 0.465319 -0.386108 0.140943 0.039882 -0.495842 -0.043587 0.204215 -0.323511 0.236870 -0.230202 -0.206799 -0.158676 0.209503 0.270210 0.078683 -0.300647 -0.294347 0.230806 -0.237618 0.088634 0.472806 -0.009244 0.147039 -0.051489 -0.292456 -0.046415 -0.085220 -0.173034 0.262894 0.477033 0.382961 0.413489 -0.105393 -0.113189 0.105341 -0.875582 0.312874 0.184754 -0.225887 -0.081182 0.272083 0.358772 -0.531713 -0.400604 0.093507 0.127844 0.328269 -0.600118 -0.099224 0.429773 0.335022 -0.207941 0.181475 0.930987 0.280144 0.358574 -0.075779 -0.601778 -0.101773 0.048629 -0.387543 0.051652 -0.130475 -0.372369 0.567873 -0.075331 -0.181646 0.216166 0.486839 0.268515 -0.558380 0.024525 0.713764 0.238292 -0.159717 0.601105 0.243818 -0.208295 0.015303 0.279322 -0.095454 0.693429 0.184531 0.118411 
on 0.355361 -0.628534 0.015671 -0.204390 -0.246292 0.068226 -0.266019 -0.105856 0.366840 -0.011405 -0.373610 0.166491 -0.369330 -0.204503 0.148598 0.849562 0.111358 -0.117788 -0.194555 0.451589 0.194641 0.030173 0.561807 -0.596697 0.368394 -0.140715 0.144083 -0.006651 0.064129 0.357077 -0.011550 0.258064 -0.613317 -0.083647 -0.653545 0.354482 0.130739 -0.072665 -0.143414 -0.182267 0.116658 0.181593 -0.036302 0.084621 -0.078081 -0.060234 -0.242278 -0.140768 -0.050935 0.111133 0.369766 -0.678420 0.099426 0.491659 -0.286318 0.113648 0.297194 -0.111285 0.408457 -0.473308 -0.100486 -0.288714 0.029201 -0.333807 -0.639447 0.229031 0.766894 0.142974 0.643571 0.879769 -0.065458 0.342247 0.046347 0.078117 0.019635 0.543657 -0.327839 -0.119616 -0.201597 0.028845 0.096172 0.503146 0.043439 0.193801 0.235908 0.179842 0.547265 0.144907 0.532071 -0.300588 0.046761 0.433911 -0.067234 -0.112126 0.661121 0.256757 -0.465323 0.656310 0.123811 -0.099484 
's 0.322929 -0.308736 0.164260 -0.561149 -0.720968 0.053845 0.087164 -1.004803 0.338749 0.307200 0.082454 0.252715 -0.426638 -0.155833 -0.414877 0.649138 0.146705 -0.187194 0.264645 0.332216 -0.528267 -0.370480 0.752709 -0.417364 0.223751 -0.441090 -0.030417 -0.018505 0.195030 0.391112 -0.377809 0.208005 -0.032751 0.122232 0.141655 0.772173 0.273305 -0.395222 -0.134781 -0.032102 0.139864 -0.062443 -0.049014 0.401011 -0.133927 -0.032832 0.558616 -0.331625 0.456589 0.156173 0.450933 -0.398879 0.389762 0.542550 -0.240135 0.275736 -0.090214 0.214498 0.120563 -0.164237 0.353174 -0.475125 0.128230 -0.144530 -0.284508 -0.195845 0.609821 0.327170 -0.212637 0.323653 0.050544 -0.083075 -0.405449 -0.350908 0.045895 0.078392 -0.424993 0.617101 -0.080878 0.140353 0.618968 0.258767 0.274987 -0.139121 -0.057099 -0.226452 -0.011252 0.743698 0.474754 0.329439 -0.397356 0.893877 0.158013 -0.094360 0.134491 0.556584 -0.203048 0.509735 -0.147316 0.401995 
for 0.575165 -0.154654 0.394010 -0.230165 -0.066229 0.330893 -0.667728 -0.150521 0.483147 0.248299 -0.075568 0.457939 -0.201505 -0.337612 -0.561834 0.647484 -0.076607 0.181383 -0.024111 0.618754 -0.137028 0.109344 0.483627 -0.259842 0.329954 -0.719174 -0.128437 0.264575 -0.033307 0.463013 -0.166932 0.165618 -0.411000 0.265566 -0.211985 0.471092 0.188541 0.222258 -0.134206 -0.260123 0.071170 0.021648 0.112213 0.140190 0.444193 -0.299479 0.301401 -0.542905 -0.053862 0.234873 0.277868 -0.536844 0.219791 0.320677 -0.387466 0.408925 0.316684 -0.355036 -0.200383 -0.617540 -0.072546 -0.242159 0.067086 -0.141793 -0.553521 0.631404 0.377402 0.217236 0.502857 0.189487 -0.272401 0.012270 0.285725 -0.283166 0.288695 0.255153 0.051201 0.104618 -0.210520 0.293547 -0.172556 0.757957 -0.040113 -0.081063 -0.057150 0.155683 0.238303 0.385297 0.460371 0.196458 0.550918 0.779830 -0.083499 0.053445 0.471045 -0.155094 -0.266294 0.319911 -0.328612 -0.421480 
The 0.264249 -0.772056 0.326480 -0.517756 -0.112432 0.139378 -0.048919 -0.391628 -0.082050 0.165340 -0.456452 -0.117000 -0.295705 0.127388 -0.068360 0.980233 -0.131819 -0.066602 0.760874 0.677162 -0.553883 -0.693120 0.776141 -0.673499 0.498200 -0.540523 -0.175223 0.110804 0.236105 0.447958 -0.034988 -0.442847 -0.308137 0.611986 -0.115064 -0.062461 0.159684 0.251267 -0.747884 -0.520567 0.041367 0.156295 -0.242457 0.546335 -0.556612 0.492720 -0.068625 -0.220756 -0.035862 0.435883 0.163252 -0.170923 0.167603 0.522284 -0.413790 0.036173 0.258204 0.069723 -0.208036 0.127925 0.114566 -0.210596 0.084708 -0.776529 -0.360224 0.358276 -0.033247 0.473751 0.101912 0.043903 0.407898 0.213885 -0.090635 -0.244130 0.398439 -0.331857 -0.291641 0.250625 -0.180741 0.072002 0.678885 -0.314112 0.319228 -0.345481 -0.022088 -0.250877 0.059368 0.832732 0.450466 0.380073 0.213475 0.401771 0.074112 -0.053564 0.174840 0.322296 0.219699 0.321851 -0.479081 0.216632 
that -0.063470 -0.283621 0.645005 -0.474917 0.084456 -0.035487 -0.316864 -0.069925 0.186194 0.149918 -0.274070 0.681091 -0.224818 -0.097171 0.064543 1.033241 0.284814 -0.131615 0.153574 0.314296 -0.196792 0.139461 0.664157 -0.365577 0.422037 -0.430074 -0.345968 -0.014154 0.207017 0.001707 -0.084551 -0.245776 -0.058602 -0.076132 -0.585706 -0.100378 0.217918 0.346602 0.192532 -0.293698 0.010553 -0.003208 0.078303 0.150759 -0.090171 0.428269 -0.274106 -0.035010 -0.386023 0.309060 0.304664 -0.414263 0.339029 0.163078 -0.183545 -0.168663 0.223062 -0.335944 -0.490832 -0.049236 -0.022139 0.044880 -0.041689 -0.226078 -0.011075 0.408471 0.422820 0.087389 0.763620 0.331979 0.128593 0.233148 0.172005 -0.555886 -0.143159 0.067778 -0.775954 0.151890 -0.405928 0.119593 0.800711 -0.356849 -0.072692 -0.359458 0.045855 0.308786 0.037120 0.235132 0.517830 -0.104056 0.133150 0.492902 0.210375 -0.224545 0.330930 0.319142 -0.296427 0.272332 -0.217375 0.300214 
was 0.054109 -0.026738 0.097656 -0.719683 0.116253 0.549837 -0.152095 -0.313008 0.045843 1.060346 0.180101 0.411964 -0.546393 -0.840745 0.080345 0.322067 0.316886 0.004748 -0.044914 0.489026 -0.626570 -0.366155 0.355401 -0.490264 0.118113 -0.156249 0.187129 -0.021898 -0.065860 0.370401 0.010774 0.091843 -0.362907 -0.043430 -0.544835 0.317808 0.362053 -0.123364 0.151910 -0.052825 -0.063976 0.320453 0.098253 0.161197 0.077384 0.124936 0.192150 -0.302603 0.124295 0.230234 0.143261 -0.742110 0.349803 0.242443 -0.144143 0.035767 0.027408 -0.251218 0.104550 -0.419125 -0.055308 0.032474 0.773485 -0.323166 -0.031192 0.676174 0.327523 -0.134613 0.496024 0.497085 -0.226478 0.604275 0.109203 -0.513101 -0.969443 0.059903 -0.369706 0.330603 0.129384 0.357749 0.437445 0.280336 -0.138113 -0.153916 -0.286656 0.572621 -0.195346 0.258988 0.189287 0.387128 -0.149626 0.331854 -0.280515 -0.168560 -0.177701 0.244795 -0.028086 0.119768 0.168773 0.782809 
by 0.348179 0.042386 0.672065 -0.088576 -0.132141 -0.073126 -0.401575 0.295794 0.361524 -0.012449 0.112214 0.505758 -0.177932 -0.293741 -0.042650 0.967716 0.330684 0.473447 0.387316 -0.100879 -0.321510 0.343848 0.801758 -0.607714 0.586156 -0.564093 -0.368086 -0.546207 0.056307 0.104407 0.122726 0.204083 -0.263078 -0.093298 -0.302529 0.406520 0.126769 -0.223777 -0.608186 -0.368495 -0.273476 0.041753 -0.107799 0.010158 0.181266 -0.056103 -0.319344 -0.619912 -0.720898 -0.032744 -0.021229 -0.743653 -0.122443 0.085036 -0.583280 -0.039224 0.675372 0.300443 -0.055759 -0.837122 -0.228919 0.226020 0.133558 -0.140107 -0.562222 0.760387 0.128691 0.274550 0.240696 0.512524 -0.494359 -0.098522 -0.677348 -0.425299 0.476028 0.449912 -0.239224 0.130781 0.060980 0.621117 -0.224671 0.223771 0.114796 0.015712 0.347769 -0.232698 0.039496 -0.167661 0.179634 0.214757 0.259582 0.193593 0.076461 0.383215 0.300915 0.180404 -0.055199 0.078911 -0.046913 -0.235677 
with 0.262255 0.046622 0.678189 -0.109749 -0.073464 0.284605 -0.431245 -0.238450 0.376026 0.014866 0.071985 0.398573 0.117726 -0.312693 -0.490480 0.927355 0.214042 0.298125 0.131738 0.113152 -0.501821 0.167075 0.676769 -0.303728 0.509942 -0.078233 0.044586 -0.464264 -0.138137 0.258549 0.131749 -0.116980 -0.480900 0.370708 -0.494961 0.384089 0.171188 -0.198297 -0.093630 -0.201393 -0.005152 -0.014549 -0.047375 -0.039852 0.333129 -0.283045 -0.447086 -0.273917 -0.612534 -0.113930 0.045709 -0.460901 0.265551 0.078870 -0.154057 0.599175 -0.020411 -0.262862 0.174004 -0.072914 -0.115159 -0.515773 -0.069865 -0.363632 -0.644776 0.841769 0.278582 0.200700 0.135047 0.723295 -0.242324 -0.224492 -0.282293 -0.162205 -0.128038 0.402531 -0.423635 0.144716 -0.520724 0.408468 0.182242 0.155273 0.016944 0.340583 0.289874 -0.039949 0.109858 0.443481 0.324765 -0.039985 0.309142 0.560628 -0.048268 0.568774 0.279585 0.154937 -0.228361 0.531990 -0.285246 -0.266257 
is 0.291469 -0.381374 0.163045 -0.659390 0.066289 0.473794 -0.176209 -0.534054 0.240963 0.895527 -0.068023 0.250661 -0.710209 -0.645583 -0.807971 0.304755 0.311959 0.419367 0.276987 0.629055 -0.288791 0.026549 0.328116 -0.477567 0.179950 -0.197474 0.105345 0.331948 -0.112421 0.252430 -0.181810 0.146845 -0.421815 0.059484 -0.360135 0.302624 0.606471 -0.208415 0.151824 0.057250 -0.033655 0.181866 0.068567 0.143537 0.172917 0.421125 0.382058 -0.282176 0.057519 0.115080 -0.166656 -0.579003 0.525597 0.350150 0.109151 -0.050579 -0.271624 -0.024449 -0.018492 0.068049 -0.103713 0.217649 0.539781 -0.359505 -0.190396 0.439146 0.723740 -0.214219 0.502246 0.285574 -0.326437 0.276137 0.028239 -0.716901 -0.545140 -0.057806 -0.313072 0.270996 0.075879 0.175022 0.431017 -0.010198 -0.098662 -0.049431 -0.267221 0.335695 0.113078 0.668214 0.318908 0.153717 -0.149644 0.285682 -0.257416 -0.202376 0.021467 0.222025 -0.065097 0.242714 -0.094760 0.748626 
( 0.508794 -0.237770 0.335566 -0.132679 -0.091488 0.066899 0.341060 -0.357705 0.100948 0.593764 0.194156 -0.041803 0.156247 0.240923 -0.651622 0.075784 0.082099 0.061865 0.251278 -0.140539 -0.457460 -0.540998 0.260397 0.337492 1.028503 -0.279559 -0.662783 -0.416382 0.005802 -0.250253 -0.035904 -0.525251 -0.363892 0.611177 -0.256757 0.013167 -0.177002 -0.397899 0.836370 -0.974845 -0.071818 0.735776 0.318008 -0.427593 0.063836 -0.852586 0.455474 -0.236615 0.243151 -0.510053 -0.318677 0.519691 0.270159 0.692899 -0.384728 0.111768 -0.013672 0.606248 -0.655753 -0.040726 -0.306966 -0.167399 0.496183 -1.198282 -0.399305 0.980034 0.128890 -0.591107 -0.124936 1.007177 0.067735 0.267881 -0.180904 -0.382983 -0.531195 0.667480 0.657322 -0.068208 -0.376021 -0.641341 0.402182 0.595527 -0.035009 -0.943882 -1.028591 -0.262692 -0.973702 1.147116 1.034929 0.014440 0.129536 0.397347 0.100142 0.874584 0.528053 -0.268106 -0.419492 0.388691 -0.556885 0.096938 
) 0.139056 -0.725774 -0.126394 0.165780 0.106270 0.056330 0.041448 -0.129527 0.259893 0.296903 0.016605 0.317920 0.040830 0.522138 -0.126319 0.051404 0.328475 0.542894 0.693339 0.140173 0.366757 -0.452478 0.116609 -0.263449 0.417992 -0.147344 -0.462657 -0.676867 -0.398027 -0.308165 -0.098898 -0.458900 -0.528826 0.022411 -0.332036 -0.136313 -0.423447 -0.110199 -0.036362 -0.192873 -0.537566 0.260097 0.318005 0.064344 -0.247459 -0.668389 0.529621 -0.167727 -0.379393 0.504269 -0.263069 0.372401 -0.186539 0.529635 -0.579628 0.408441 0.300540 0.766844 0.036601 -0.286805 -0.667536 0.827265 0.147571 -1.103415 -0.887874 0.779737 0.290391 -0.146698 0.519028 0.503886 -0.386635 0.941982 -0.005116 0.028729 -0.557116 0.667476 0.397548 -0.134031 -0.426962 0.009636 0.941157 0.718089 -0.527526 -0.806908 -0.709582 -0.647041 0.259972 1.300072 0.305530 0.176572 -0.728007 0.056596 0.655131 0.052100 0.718766 0.822084 -0.025293 1.038427 0.179495 0.581487 
at -0.032734 -0.235349 0.230541 -0.504110 0.117050 0.016396 -0.125458 -0.251209 -0.200061 0.341078 0.535255 0.197574 -0.259026 -0.266261 -0.164708 0.648588 -0.210391 0.357103 0.176424 0.690195 -0.343662 -0.129856 0.211894 -0.198746 0.528023 -0.760981 0.362391 -0.099818 0.493105 0.271599 0.615859 0.127013 -0.530053 -0.223644 -0.315712 0.343618 0.256014 0.343847 0.235543 -0.051756 -0.090399 0.467172 -0.036120 0.264936 -0.148547 -0.281849 -0.598762 -0.344054 -0.315737 -0.445241 0.299377 -0.169227 -0.004588 0.305659 -0.119680 -0.001120 0.434049 -0.175002 0.376279 -0.762676 -0.047390 -0.208129 0.065093 -0.240873 -0.232571 0.619079 0.297414 0.438683 0.811760 0.419341 -0.524358 0.257428 -0.054337 -0.537435 0.385921 0.381955 0.152187 0.124623 -0.129069 -0.025421 -0.203589 0.516070 -0.297651 0.457768 0.089330 0.277552 0.291110 0.136871 0.310473 0.453769 0.535049 0.986917 0.080734 -0.179590 0.085717 0.288675 -0.572051 0.697524 0.229031 -0.202572 
from 0.616237 -0.203499 0.230841 0.058068 -0.133819 0.172353 -0.367114 0.472948 -0.152394 0.355479 0.636252 0.483383 -0.372500 -0.144456 0.055478 0.758204 0.517329 0.215365 -0.065619 0.757728 -0.479963 -0.132566 0.469940 -0.399504 0.107815 -0.703230 -0.051265 0.064866 -0.486924 0.045349 0.298131 0.049852 -0.298724 0.101562 -0.304692 0.209629 0.180205 0.263951 -0.313618 -0.496365 -0.362553 0.584299 -0.085834 0.602538 -0.022494 -0.149958 -0.129266 -0.459131 -0.449708 -0.016231 0.275365 -0.352447 0.010271 0.561175 -0.043164 0.365946 0.371818 0.270476 0.086708 -0.549048 -0.303652 -0.395271 0.163374 -0.494383 -0.349452 0.502505 0.448809 0.193700 0.283803 0.209555 -0.568909 -0.036445 -0.154783 -0.210077 0.165392 -0.041788 -0.005872 -0.050994 -0.143990 0.193322 0.213463 0.363763 0.160939 0.081456 0.134167 0.172949 -0.219151 0.269653 0.407152 -0.030814 0.068316 0.342781 -0.062247 -0.068890 0.641249 0.293716 -0.370939 0.440720 -0.137021 -0.323515 
as -0.089685 -0.192181 0.118503 -0.462335 0.117347 0.203163 -0.389473 0.280463 0.138178 0.118008 -0.136845 0.591844 -0.214719 -0.380206 -0.353826 0.752816 0.748673 0.159957 0.298233 0.349832 -0.113322 0.120794 0.446718 -0.653132 0.430744 -0.525384 -0.372058 -0.333653 0.076283 0.420202 -0.262268 0.683904 -0.209056 0.575160 -0.442271 0.407804 0.286772 -0.284108 -0.354559 -0.078337 -0.522832 -0.056264 -0.122422 0.096217 0.018039 -0.010140 0.206820 -0.321818 0.115687 0.141352 -0.035829 -0.671546 -0.052567 0.130293 -0.286558 0.166955 -0.004136 -0.070349 -0.147511 -0.296088 -0.213796 -0.202068 0.130455 0.227653 -0.034597 0.481627 0.265999 0.499198 0.593601 0.531730 -0.065823 0.337684 0.077202 -0.219302 0.070753 0.370436 -0.472991 -0.058460 0.084518 0.327186 0.342555 -0.060978 -0.191784 -0.129101 0.416990 0.240863 -0.000081 0.484722 0.470326 -0.047239 0.242884 0.593229 0.293982 -0.296960 0.282065 -0.240431 0.189584 0.408352 -0.120307 0.146630 
he -0.133277 -0.685026 0.300734 -0.282764 0.085850 0.115390 -0.138960 -0.361549 0.328430 0.423567 -0.063179 0.904816 -0.437407 -0.162852 -0.087557 0.544085 0.217951 -0.077389 0.327405 0.061760 -0.324670 0.208435 0.473825 -0.620518 0.352458 -0.016216 -0.012098 0.216044 -0.188098 -0.038222 0.197870 0.041410 -0.239147 0.097008 -0.383116 0.047086 0.648128 0.091911 0.151526 -0.305299 -0.404525 0.193200 -0.105296 -0.472136 0.356718 0.234218 -0.101570 -0.084822 0.052629 -0.193010 0.048728 -0.860384 0.181505 0.298785 0.173358 -0.149037 0.198313 -0.286030 -0.124155 -0.229838 0.544808 -0.107296 0.351789 -0.092934 0.076306 0.201497 0.213539 -0.122673 0.602918 0.668315 0.194386 -0.025356 0.172525 -0.414293 -1.043821 -0.063370 -0.595821 -0.045200 0.142771 0.246329 0.987763 -0.043868 -0.003702 -0.123235 -0.036792 0.523693 -0.054389 0.171641 0.592740 0.087316 -0.282639 0.145363 0.137079 -0.087472 0.056346 -0.030932 0.084709 0.211132 -0.082330 0.091611 
be 0.169185 -0.542033 0.510053 -0.266522 0.050780 0.055030 -0.586315 0.090878 -0.049008 0.798073 -0.134134 0.481562 -0.903239 -0.776914 0.015267 0.447653 0.118244 0.094260 0.748210 0.387964 -0.333710 -0.030129 0.306256 -0.221805 0.359193 -0.555967 -0.030943 0.307920 0.089434 0.275308 -0.186992 0.224323 -0.340371 -0.304937 -0.531120 0.265208 0.441733 -0.279516 -0.017957 -0.151863 -0.168830 -0.139979 0.216822 -0.209611 0.236948 0.225985 0.201893 -0.764025 -0.139683 0.019978 -0.376273 -0.465376 0.289769 -0.047200 0.037290 -0.228654 -0.215982 -0.165265 0.274252 -0.550616 -0.107156 0.742323 0.531269 0.095096 -0.233765 0.591255 0.414165 -0.047679 0.786547 0.367133 -0.475635 0.151972 -0.014523 -0.273323 -0.698117 -0.087856 -0.270571 -0.028824 -0.019025 0.750157 0.325844 -0.064659 -0.159840 0.141952 0.001627 0.659719 0.282336 0.285894 0.159425 0.365436 -0.199504 0.295212 -0.481611 -0.182318 0.103761 0.137156 -0.439758 0.027064 -0.044541 0.110400 
have 0.051698 -0.999682 1.021345 -0.498445 -0.102544 0.098510 -0.500818 0.091986 0.227982 0.675524 -0.127686 0.854461 -0.504955 -0.493837 0.465424 0.685978 -0.013224 0.112103 0.513172 0.454399 -0.197260 -0.147096 0.300630 -0.067718 0.359122 -0.433154 0.127464 -0.104234 -0.179791 0.163867 -0.250044 -0.135494 -0.425152 -0.262623 0.106434 0.278171 0.331412 -0.387151 0.233916 0.126145 -0.134586 -0.214877 0.363197 0.148680 0.031862 0.398473 0.119554 -0.330745 -0.204407 0.064155 0.115373 -0.142492 0.039106 0.058711 0.055397 0.311287 -0.112219 -0.424968 -0.004441 -0.225249 -0.083881 0.894721 0.240003 -0.019801 -0.154708 0.158655 0.274774 -0.252661 0.673163 0.810782 0.123561 0.081016 -0.344412 -0.176634 -0.619956 -0.298980 0.115389 0.375258 0.323675 0.223385 0.958913 -0.238990 -0.124990 0.155735 0.071255 0.583258 0.259335 0.635885 0.354860 0.071480 0.018579 0.119087 -0.407197 -0.190426 0.023119 0.306073 -0.518953 0.011766 -0.273160 0.056459 
has -0.100959 -0.779066 0.815725 -0.718560 -0.309884 0.447468 -0.340459 -0.491910 0.285358 0.663519 -0.257753 0.709939 -0.386780 -0.872310 -0.122210 0.170488 -0.119342 0.369596 0.036583 0.605259 -0.327918 -0.342781 0.430406 -0.606307 0.144363 -0.133820 0.196757 -0.208920 -0.152351 -0.088820 -0.303340 0.073847 -0.312939 -0.103842 0.037288 0.654984 0.351106 -0.294545 0.276927 -0.018144 -0.215114 -0.236200 0.061048 -0.010661 0.003693 0.573410 0.059863 -0.187327 -0.151054 0.077462 0.318408 -0.694408 0.410304 0.139242 -0.087294 0.418831 -0.043747 -0.348361 -0.295042 -0.025975 0.326429 0.653570 0.634586 -0.284463 0.120094 0.098319 0.456247 -0.481239 0.572041 0.713036 -0.052488 0.532231 -0.016038 -0.425018 -0.832632 0.042951 -0.093909 0.476848 0.213644 0.010542 0.694674 -0.110937 -0.135376 0.107724 -0.309131 0.242988 0.294837 0.724827 0.475202 -0.125094 -0.351967 0.230813 -0.366344 -0.155861 0.088852 0.340001 -0.110553 0.088753 -0.164508 0.773959 
an 0.031649 -0.156800 0.629132 -0.145313 0.214307 -0.340160 0.179764 -0.530756 0.066286 0.715039 0.160627 0.078492 -0.376310 0.055241 0.271586 0.654700 0.352379 -0.025763 0.159143 0.697746 -1.117789 -0.955199 0.284855 -0.515639 0.079819 -1.064630 0.089314 -0.255763 0.075726 0.649073 0.089351 0.200172 -0.533389 -0.125907 -0.547892 -0.216120 0.097859 -0.321504 -0.340797 -0.295502 -0.081722 0.264400 -0.283312 -0.437604 0.280111 0.355303 -0.142688 -1.023912 0.431739 -0.221411 0.023403 0.044181 0.857594 0.233223 0.125144 -0.159731 0.191425 0.160228 -0.059769 -0.206210 0.185214 -0.530562 0.393808 -0.453073 -0.088528 0.750956 0.776690 0.278436 0.205530 0.388014 -0.122512 -0.424834 0.335506 -0.476190 -0.279382 0.205289 -0.215672 -0.044268 0.360703 0.385299 0.179824 -0.244020 -0.288448 -0.087138 -0.190892 0.119043 0.095651 0.029830 0.893917 -0.032135 0.369005 0.783155 0.050692 0.524545 0.116917 -0.132624 0.150166 0.430889 -0.074393 0.111890 
had -0.097335 -0.560756 0.808453 -0.597926 -0.068533 0.257924 -0.465503 -0.208693 0.052043 0.813232 -0.045118 0.925787 -0.283273 -0.668377 0.807516 0.563606 0.105114 -0.160410 0.054253 0.287682 -0.579149 -0.408020 0.413312 -0.349724 0.264209 -0.172788 0.019323 -0.291570 -0.184851 0.102463 -0.236060 -0.180221 -0.280534 0.054474 -0.081861 0.239655 0.286374 -0.179292 0.450544 -0.058351 -0.027802 0.020926 0.181193 0.000696 -0.066546 0.261966 0.088052 -0.307260 -0.024597 0.370195 0.480088 -0.465926 0.187832 0.037668 0.048848 0.227679 -0.108289 -0.498813 -0.044755 -0.421809 0.305218 0.276252 0.582340 -0.145113 0.197480 0.317176 0.206553 -0.351642 0.490036 0.924237 0.119980 0.353921 -0.061524 -0.282947 -0.907414 0.006111 -0.127809 0.447111 0.080674 0.189109 0.787979 0.126920 -0.003778 -0.147250 0.011482 0.587793 -0.022944 0.413208 0.245939 0.090158 -0.258886 0.237134 -0.225135 -0.517296 -0.092472 0.578453 -0.310956 0.101924 0.024119 0.444490 
were 0.242522 -0.577637 0.145492 -0.685076 0.209518 0.363631 -0.241320 0.088061 -0.138633 1.105751 0.061933 0.584422 -0.612119 -0.568962 0.553212 0.726960 0.565712 -0.041904 0.257445 0.166229 -0.396523 -0.493398 0.320824 -0.166648 -0.073558 -0.218338 0.381739 -0.056886 -0.341715 0.672221 -0.251221 -0.050988 -0.641860 -0.245121 0.010574 0.227341 0.482423 -0.240290 0.295614 0.092714 0.054558 0.221254 0.429640 0.342385 0.027696 -0.082092 0.224694 -0.470174 -0.158299 0.291668 0.040021 -0.443331 0.102020 0.234096 -0.084869 0.159172 -0.038751 -0.364655 0.208323 -0.523454 -0.309190 0.204038 0.390593 -0.362956 -0.116050 0.828930 0.286349 0.196772 0.360566 0.690202 0.026524 0.462397 -0.287621 -0.291075 -0.760033 -0.092378 0.079242 0.219159 0.286248 0.340235 0.582506 -0.007946 -0.007957 -0.180296 0.021439 0.938516 -0.285990 0.458521 0.058432 0.235150 0.052548 0.192513 -0.632609 -0.299591 -0.001682 0.101876 -0.551806 -0.065731 -0.095646 -0.018416 
his 0.380391 -0.499725 0.317807 0.159397 -0.357511 -0.309621 -0.067942 -0.450590 0.472236 0.292856 -0.154753 0.916964 -0.316536 0.056139 0.151095 0.453463 -0.246575 -0.025465 0.100667 0.543367 -0.707269 -0.222799 0.438281 -0.545027 0.174405 -0.502811 0.139358 -0.125895 -0.464572 0.156631 0.037221 0.409997 0.118366 0.084803 -0.245261 0.349081 0.375068 0.164543 -0.274136 -0.232141 -0.208926 0.139432 -0.275983 -0.039181 -0.144333 0.035641 -0.330394 -0.348301 -0.095065 0.648220 0.209382 -0.570179 0.475864 0.379223 -0.030272 0.543043 0.016611 -0.278617 0.096444 -0.094321 0.400663 -0.809976 0.201544 -0.042549 -0.258002 -0.075986 0.672103 0.158945 0.395860 0.132020 -0.142504 -0.710136 -0.178461 -0.282062 -0.677319 0.470463 -0.985183 0.140719 0.118273 0.317401 0.398054 0.133141 0.333187 -0.133995 -0.092665 0.145460 0.026478 0.210677 0.604398 0.460206 0.166289 0.623182 0.288646 0.117745 0.198407 0.381672 -0.301592 0.542475 0.320297 -0.434851 
it -0.246914 -0.461284 0.483378 -0.516741 0.051279 -0.126000 0.007902 -0.191723 0.404700 0.426497 0.170062 0.695700 -0.369757 -0.593508 -0.008406 0.530673 0.477616 -0.266550 0.472000 0.391117 -0.124678 0.356413 0.604515 -0.503030 0.393983 -0.345160 -0.181736 0.021728 0.158352 -0.138549 0.053409 0.119749 -0.355647 -0.302690 -0.505342 -0.049175 0.096903 -0.057782 0.009896 -0.024276 -0.253381 0.204567 0.019438 -0.331997 0.229673 0.583079 0.027798 -0.099021 0.018762 0.025879 0.108704 -0.602115 0.653380 0.341660 -0.050980 -0.028931 0.044626 -0.059146 -0.490689 -0.144386 0.193733 0.165686 0.078953 -0.233011 -0.171045 0.598880 0.595336 0.037738 0.590197 0.355160 0.237385 -0.221768 0.152368 -0.393714 -0.735552 -0.249339 -0.169349 -0.122728 0.042840 0.148911 0.656989 -0.216431 -0.052407 -0.200363 -0.059151 0.334058 0.238699 0.466633 0.395952 -0.240389 -0.242169 0.194097 0.093071 -0.147330 0.062803 -0.116312 0.000668 0.491594 0.032224 0.317917 
which 0.146433 -0.248326 0.320734 -0.846835 -0.333284 0.236852 -0.072390 -0.605489 0.104485 0.303580 -0.089166 1.094797 -0.151744 -0.421636 0.096784 0.326860 0.369891 0.091882 0.105942 0.308571 0.175828 0.084346 0.638517 -0.571436 0.456726 -0.281937 0.015053 0.094194 -0.200460 -0.193129 -0.213754 -0.097247 -0.434608 -0.395123 -0.573954 0.234037 0.292393 -0.138328 -0.000714 -0.376763 -0.387440 -0.085558 0.394736 0.199492 -0.162972 0.320562 -0.024149 -0.114091 -0.136831 -0.169673 -0.013255 -0.635163 0.309827 -0.034724 -0.146898 -0.030296 0.005891 -0.150859 -0.225816 0.073214 0.084979 0.051646 0.017659 -0.744990 0.287292 0.591648 0.325551 -0.098444 0.022516 0.741300 0.136304 0.516916 -0.204422 -0.251773 -0.491758 0.149846 -0.215308 0.145770 -0.035235 -0.032728 0.403225 -0.383828 -0.209038 -0.023058 0.131338 0.473046 0.232109 0.745460 0.508972 -0.070642 -0.484160 0.346238 -0.182023 -0.005353 0.476166 0.169201 0.096942 0.174860 -0.684100 0.415394 
will 0.055750 -0.867398 0.383089 -0.288395 -0.239241 0.183369 -0.571561 -0.281646 0.101721 0.751294 -0.025982 0.629921 -0.657879 -0.487103 -0.559397 0.291793 -0.048318 0.111079 0.652864 0.314965 -0.339556 0.494058 0.590757 -0.420446 0.372865 -0.137780 0.278766 0.670981 0.103890 -0.108139 -0.287573 -0.247374 -0.223257 0.102009 -0.244071 -0.241729 0.574547 -0.293119 0.150993 -0.145910 0.273348 -0.084196 0.053381 0.310865 0.314030 0.146888 0.383328 -0.183866 0.219501 0.134004 -0.026806 -0.206753 0.355659 0.213273 0.022307 0.202737 -0.000996 0.074841 0.242038 -0.309127 0.129197 0.417738 0.345017 -0.208631 -0.219969 0.577800 0.660243 -0.156377 0.574962 0.406214 -0.454039 0.180648 -0.312910 -0.300812 -0.659358 0.296752 -0.192237 0.094941 0.222688 0.313107 0.271461 -0.268714 -0.206625 -0.087392 -0.102453 0.863531 -0.024819 0.914237 0.364944 0.291976 -0.347935 0.278414 -0.518991 -0.451845 -0.180194 0.403413 -0.224225 0.075007 -0.111191 0.410683 
not -0.035797 -0.696140 0.376551 -0.313018 0.170509 -0.186342 -0.117129 -0.306946 0.262261 0.496148 -0.184719 0.578497 -0.469608 -0.278082 -0.184932 0.711812 0.605383 0.051756 -0.061261 0.337303 -0.505672 0.028844 0.157899 -0.166617 0.112204 -0.364736 0.018573 0.259600 0.297681 0.050806 -0.074837 -0.028185 -0.320789 0.162143 -0.163977 -0.082493 0.292399 -0.509146 0.150505 -0.661501 0.189194 0.275496 0.081016 -0.228319 -0.059610 0.538006 0.494849 -0.403067 0.011651 0.358915 0.110844 -0.169907 0.495789 0.081125 -0.164654 -0.131731 0.296210 -0.093060 0.155591 -0.385005 -0.392372 0.632208 0.355199 0.509659 -0.153188 0.593193 0.468884 -0.171656 0.687045 0.628841 -0.169425 -0.185541 -0.054170 -0.469753 -1.049975 0.024354 -0.270414 -0.163694 0.094240 0.393775 0.593950 0.149576 -0.133569 0.031080 -0.384213 0.919800 0.383238 0.236359 0.247024 0.035760 -0.276524 0.415849 -0.168112 0.268243 -0.057345 0.341911 -0.597179 -0.062755 -0.394302 0.479509 
are 0.427762 -0.966052 0.071904 -0.650469 0.249207 0.355990 -0.336420 -0.035925 0.176256 0.940011 -0.023958 0.339270 -0.753635 -0.389555 -0.416691 0.783619 0.368338 0.354413 0.699255 0.264596 -0.059231 -0.020227 0.259034 -0.020285 -0.029836 -0.354184 0.249941 0.248482 -0.340323 0.537932 -0.222389 0.114574 -0.670245 -0.063861 0.141650 0.324626 0.597000 -0.236161 0.377436 0.031580 0.046551 0.221636 0.346724 0.324084 0.083936 0.156786 0.374422 -0.484816 -0.097569 -0.039300 -0.246286 -0.518411 0.312854 0.134288 0.152146 -0.006899 -0.457542 -0.127224 -0.003297 -0.143694 -0.342496 0.536628 0.277006 -0.365443 -0.331620 0.618551 0.618726 0.083766 0.328791 0.389098 -0.048242 0.061192 -0.390105 -0.415621 -0.592721 -0.223162 -0.005048 0.202191 0.191478 0.251602 0.642641 -0.299778 0.071011 0.098096 -0.010623 0.671036 -0.072506 0.783470 0.232339 0.090939 0.148027 0.056968 -0.613956 -0.365862 0.014425 0.018417 -0.696399 0.053440 -0.241939 0.120999 
after 0.196390 0.007276 0.493669 -0.649077 0.173791 0.526120 -0.525513 0.207897 0.009262 0.288736 0.092449 0.263749 -0.137497 -0.233030 0.201547 0.418448 0.448457 -0.351137 0.146875 0.415017 -0.446693 0.184834 0.790970 -0.420203 0.587277 -0.261680 -0.081248 -0.192937 -0.140849 0.376282 0.030257 -0.063559 -0.651932 0.224582 -0.139028 0.630722 0.403388 0.056304 -0.187808 -0.446798 -0.602943 -0.223291 -0.141509 -0.200635 0.078770 -0.452426 0.189960 -0.342150 0.018883 -0.080542 0.577051 -0.717980 0.059624 0.227427 -0.382850 0.371559 0.517842 -0.125513 0.219285 -0.979409 0.180658 -0.419941 0.027251 -0.509101 -0.054833 0.146311 0.047227 0.141206 0.567487 0.580997 -0.063529 0.135971 -0.133356 -0.515826 -0.253752 0.296045 -0.580372 0.110553 -0.234682 0.052204 0.598583 0.437977 0.055024 -0.169614 0.010570 -0.073350 -0.034843 0.301390 0.932959 0.090001 0.388610 -0.005833 -0.175373 0.079550 0.136036 -0.083700 -0.225855 0.132686 -0.493699 -0.383293 
who 0.236065 -1.062232 0.283518 -0.266147 0.037723 0.002276 -0.065474 -0.493373 -0.246401 0.259745 -0.261452 1.309773 -0.552857 -0.422923 0.072574 0.205502 0.166843 -0.066923 0.248162 -0.066968 -0.426699 -0.645591 0.341538 -0.309491 -0.078336 -0.406774 0.162165 0.230887 -0.689235 0.138580 -0.270220 -0.251021 -0.159604 0.093338 -0.609255 0.340574 0.743045 -0.253517 0.521628 -0.492755 -0.073321 -0.176252 0.149138 0.029679 -0.227871 0.103114 0.461206 0.134312 0.440663 -0.103338 0.162011 -0.323847 -0.319592 0.657319 -0.125444 0.192220 -0.254005 -0.386804 -0.247695 -0.124391 0.361697 -0.099581 0.195327 -0.063104 0.081217 0.064898 0.145318 -0.164083 0.446873 0.808255 0.146811 0.058882 -0.123723 -0.025842 -0.662341 0.429404 -0.178952 0.556463 0.525204 -0.111392 0.911112 0.116457 0.047847 0.177391 -0.205988 0.548150 -0.503790 0.541584 0.973383 0.129650 0.023610 -0.029169 0.398617 -0.405265 0.331092 0.090838 -0.165895 0.034465 0.132765 0.156020 
would -0.116558 -0.707450 0.436318 -0.452597 -0.144061 0.002984 -0.467465 -0.096057 -0.060274 0.608179 0.096898 0.927639 -0.425626 -0.531569 -0.158973 0.561757 0.268542 0.014765 0.330004 0.564544 -0.552059 0.287885 0.639199 -0.397931 0.246580 -0.280766 -0.072949 0.403201 0.227800 -0.078851 0.030669 -0.156725 -0.198499 -0.014645 -0.210107 -0.254957 0.471865 -0.298591 0.425855 -0.327897 0.325822 -0.142211 0.037724 0.260828 0.234013 0.258482 0.373072 -0.314179 0.330389 0.521818 0.364803 -0.314014 0.295622 0.184668 0.081392 0.054277 0.174171 -0.164552 0.090275 -0.370746 0.094798 0.240408 0.488057 -0.201593 0.154733 0.788562 0.615398 -0.104253 0.712051 0.510076 -0.339551 0.255167 -0.003423 -0.447993 -0.609935 0.065701 -0.401950 0.143771 -0.030418 0.383187 0.146329 -0.343864 -0.259653 -0.245854 -0.007166 1.043987 -0.024628 0.805607 0.242104 0.304815 -0.348318 0.421780 -0.471450 -0.530991 -0.198924 0.422922 -0.149030 -0.058113 0.044577 0.625395 
been 0.120137 -0.666230 0.765728 -0.584103 0.121753 0.310232 -0.584325 0.162974 -0.052226 1.157853 -0.092722 0.373853 -0.612233 -0.823310 0.573227 0.306091 0.081074 0.183263 0.191403 0.336749 -0.659620 -0.611204 0.060189 -0.312948 0.147581 -0.311709 0.239496 -0.188046 -0.398123 0.407357 -0.158639 0.117067 -0.639334 -0.255948 0.005910 0.580752 0.379914 -0.304704 0.157914 0.106457 -0.337851 -0.049046 0.064520 -0.050552 -0.010186 0.314631 -0.062754 -0.585822 -0.218455 0.203724 -0.019432 -0.661258 0.260991 0.165277 -0.194637 0.230409 -0.324843 -0.256009 -0.021961 -0.494541 -0.005172 0.893009 0.660385 -0.031277 -0.128834 0.291840 0.459047 -0.238869 0.682338 0.649189 -0.285568 0.342990 -0.162257 -0.431135 -0.700726 -0.242764 -0.237898 0.098822 0.232309 0.567659 0.558435 0.088202 -0.217433 0.118802 -0.299390 0.623587 0.124708 0.265126 0.334599 0.023928 -0.212316 0.298045 -0.514979 -0.115053 0.231858 0.180339 -0.434394 -0.140810 0.017487 0.237217 
: -0.351239 -0.605967 0.304935 -0.122711 0.193464 0.138386 0.215391 0.369507 0.910580 -0.152660 -0.509001 0.100630 0.193279 0.350845 -0.144830 1.012564 0.224687 -0.139909 0.771340 -0.218164 0.108312 -0.079366 0.747882 -0.759453 1.353165 -0.029314 -0.352143 0.175165 0.291901 0.040693 0.104710 -0.003063 -0.621609 0.254729 -0.255239 0.264881 -0.183176 0.222470 0.435388 -0.842790 0.484508 0.031674 0.006471 0.360221 -0.522727 -0.376764 -0.706936 0.078206 -0.092842 -0.103536 0.025596 0.006134 -0.226134 0.463820 -0.246331 -0.251159 0.309655 0.666050 -0.292513 -0.180487 -0.414001 -0.360097 0.178575 0.506611 -0.196535 -0.050560 -0.258978 0.927421 0.906727 0.646692 -0.178048 0.149953 0.296566 -0.938775 -0.260752 0.735402 -0.014115 0.116226 -0.054044 0.200622 0.348040 0.171612 0.216074 -0.757008 -0.174710 0.260253 -0.062964 1.029064 0.310189 0.199387 0.033511 0.572680 0.513225 0.514965 -0.074524 0.249828 0.010063 0.027750 -0.387544 0.657600 
US 0.167531 -0.504680 0.875368 -0.150902 -0.044209 -0.658579 -0.463284 -0.251224 0.140111 0.600578 -0.039035 0.159312 -0.618876 0.227511 0.107313 0.711768 0.569173 -0.133276 0.360327 0.065882 -0.329421 0.016102 0.720506 -0.292279 0.379272 -0.496984 -0.161711 -0.318423 0.657178 0.336865 0.121261 0.252911 -0.593693 -0.057211 0.455135 0.167054 0.257906 0.300671 -0.161509 -0.404098 -0.329495 -0.494836 0.214402 0.210352 0.716794 0.382975 -0.244686 -0.288167 -0.504924 -0.263613 0.429619 -0.452967 0.326856 0.891380 -0.068081 0.418774 0.046966 -0.130382 -0.235009 0.201558 -0.437825 0.172834 -0.211285 -0.574677 -0.323399 0.055529 0.009400 0.294121 0.100961 -0.033279 -0.261083 0.450372 0.050750 0.322967 -0.409044 0.373263 -0.781191 -0.345138 0.479860 0.027884 0.321623 0.268748 0.690772 -0.089646 -0.218956 0.481726 -0.087702 0.474364 0.387446 -0.068632 0.035032 0.686741 0.536654 -0.051589 0.254956 -0.051154 0.218140 0.436125 0.529135 -0.041678 
its 0.421334 -0.544050 0.777987 -0.482122 -0.617053 -0.529716 -0.046436 -0.352920 0.364500 0.098741 -0.021257 0.453159 -0.459257 -0.134623 0.085978 0.269102 0.106314 -0.119032 0.329061 0.673849 -0.411655 0.060646 0.690680 -0.442314 -0.084339 -0.195890 0.038626 -0.459459 0.043468 0.260752 -0.128265 0.540580 -0.221091 -0.279110 0.051033 0.191714 -0.328914 0.002427 -0.198524 -0.076202 -0.206231 0.081969 0.061016 -0.069011 0.053337 0.527182 -0.105539 -0.441389 -0.046342 0.191748 0.386708 -0.803139 1.000492 0.364540 0.115764 0.518662 -0.066314 0.453550 -0.348581 -0.398407 0.244300 -0.481372 0.447296 -0.596676 -0.516662 0.294771 0.988724 0.365269 0.251171 -0.014487 0.157115 -0.438699 -0.385880 -0.123516 -0.204047 0.075779 -0.427131 -0.074843 -0.026690 0.271228 -0.022972 -0.056944 -0.112275 -0.144028 0.194845 -0.014198 0.416396 0.869539 0.347819 0.054975 0.016463 0.778752 0.074542 0.089138 0.417562 0.380074 -0.394836 0.681265 0.151831 -0.163647 
but -0.054137 -0.348825 0.105843 -0.552629 -0.131265 0.285318 -0.212592 -0.265447 0.349315 0.045157 -0.021351 0.854563 -0.109745 -0.201390 -0.318233 0.899112 0.667599 -0.025917 0.245734 0.455649 0.002220 0.294969 0.544583 -0.417414 0.549558 -0.349092 -0.049227 -0.195147 0.209033 -0.033206 -0.009700 0.190246 -0.468641 0.607847 -0.085082 0.365278 0.495322 0.008256 -0.037474 -0.089101 -0.483269 0.064771 -0.111270 0.019666 0.136877 0.242215 -0.109860 -0.082538 -0.039277 0.095773 0.047502 -0.518840 -0.070197 0.181612 -0.264353 0.072242 0.334373 -0.354599 -0.010024 0.040415 -0.143702 0.025780 0.172934 -0.296286 0.133053 0.245700 0.091076 0.215579 0.269282 0.901130 -0.129004 0.360169 -0.042228 -0.367915 -0.674277 -0.317897 0.004644 -0.060259 -0.135253 -0.084408 0.777030 0.023452 -0.048267 -0.083153 0.499823 0.521357 0.019190 0.361635 0.644701 0.009681 -0.201819 0.321775 0.152411 0.016284 0.389815 0.022590 -0.213160 0.321918 -0.546841 0.022399 
their 0.398943 -0.919217 0.073244 -0.098903 -0.311835 -0.300473 -0.058510 -0.283588 0.313585 0.231896 -0.024712 0.826196 -0.477968 0.159208 0.306250 0.851364 -0.108896 -0.285107 0.500035 0.255520 -0.331017 -0.012251 0.588422 -0.100434 -0.129834 -0.375489 -0.003251 -0.259178 -0.438139 0.259786 -0.143618 0.597911 -0.321044 -0.030062 -0.063851 0.169293 -0.002350 -0.135508 -0.299684 -0.219913 -0.275965 -0.180943 -0.042054 -0.081909 -0.022916 -0.057243 -0.186704 -0.529292 0.018397 0.384020 0.081801 -0.519637 0.510586 0.198959 -0.016864 0.569669 -0.290083 -0.280832 -0.274343 -0.531590 0.196258 -0.453356 0.054398 -0.298183 -0.607614 0.155109 0.886248 0.555114 0.134053 0.394216 0.152734 -0.934997 -0.624362 0.065403 -0.434538 0.155479 -0.113159 -0.181564 0.368192 0.498841 0.376877 -0.144920 0.066600 -0.039559 0.289384 0.320090 0.205949 0.653054 0.784455 0.104555 0.472361 0.544143 -0.017725 0.085760 0.079355 0.432306 -0.868439 0.555445 -0.023035 -0.736260 
government -0.171330 -0.538268 0.577106 -0.119014 -0.176574 -0.577698 -0.019146 -0.531598 0.607726 0.409188 0.207779 0.165957 -0.522746 -0.197520 -0.126062 0.982000 0.130921 -0.043423 0.344881 0.082930 -0.084105 0.329535 0.416564 -0.124961 0.193542 -0.206309 -0.301035 -0.214867 -0.199641 0.088681 0.239583 -0.318443 -0.495045 -0.552691 0.227897 0.693359 0.457075 -0.427127 -0.054336 -0.035777 -0.271549 0.020493 -0.220827 0.245757 0.198708 0.590758 0.360800 -0.242180 -0.063753 -0.029421 0.521095 -0.552144 0.571452 0.510698 -0.529656 0.122601 0.175050 -0.245794 -0.534522 -0.118839 -0.141502 -0.012142 0.264945 -0.123959 -0.159346 0.309089 0.412240 -0.035953 0.109203 0.419086 0.296786 0.092457 -0.130930 -0.177236 -0.327890 0.102514 -0.452176 0.103566 -0.315473 0.122576 0.214317 -0.180133 0.083309 -0.747133 0.319467 0.435402 0.377323 0.432763 0.473002 0.484713 -0.112981 -0.201055 0.025136 -0.277822 0.827388 0.375860 0.475797 -0.026785 0.130523 -0.121296 
LONDON -0.087829 0.004008 -0.185943 0.615633 0.030195 -0.267029 0.031584 0.369835 0.872764 0.666672 -1.226511 0.338504 0.308899 -0.646867 0.497365 0.962196 -0.312445 0.231256 0.986742 0.446738 0.101922 -0.713437 1.411134 -0.821744 0.488786 -0.621996 -0.109775 0.689002 0.358346 -0.197416 -0.279861 0.326239 -0.586284 0.794755 -0.716027 0.902970 1.158250 -0.190326 -0.216361 -0.900740 -0.953464 -0.822610 0.621374 0.386808 -0.071241 -0.619680 -0.901613 -0.333185 -0.527253 -0.030970 0.602228 -0.030526 0.057997 1.109434 -0.372119 -0.989663 -0.055338 1.995782 -0.475842 -0.030066 0.010620 -1.200718 0.431933 0.426677 -1.315906 -0.607589 -0.191673 0.462438 0.477125 0.842929 -1.246196 0.613371 0.210978 -0.524457 0.417861 0.507733 -0.109161 -0.254944 0.286441 -0.826123 0.131286 0.648012 0.169887 -0.291383 -0.034378 0.424676 0.500997 0.886974 1.252103 -0.652468 -0.180444 0.273325 -0.590815 0.639009 -0.264936 0.087449 -0.087833 -0.318926 -0.196939 -0.091024
